2 100
</s> 0.004003 0.004419 -0.003830 -0.003278 0.001367 0.003021 0.000941 0.000211 -0.003604 0.002218 -0.004356 0.001250 -0.000751 -0.000957 -0.003316 -0.001882 0.002579 0.003025 0.002969 0.001597 0.001545 -0.003803 -0.004096 0.004970 0.003801 0.003090 -0.000604 0.004016 -0.000495 0.000735 -0.000149 -0.002983 0.001312 -0.001337 -0.003825 0.004754 0.004379 -0.001095 -0.000226 0.000509 -0.003638 -0.004007 0.004555 0.000063 -0.002582 -0.003042 -0.003076 0.001697 0.000201 0.001331 -0.004214 -0.003808 -0.000130 0.001144 0.002550 -0.003170 0.004080 0.000927 0.001120 -0.000608 0.002986 -0.002288 -0.002097 0.002158 -0.000753 0.001031 0.001805 -0.004089 -0.001983 0.002914 0.004232 0.003932 -0.003047 -0.002108 -0.000909 0.002001 -0.003788 0.002998 0.002788 -0.001599 -0.001552 -0.002238 0.004229 0.003912 -0.001180 0.004215 0.004820 0.001815 0.004983 -0.003111 -0.001532 -0.002107 -0.002907 0.002815 0.001579 0.000425 -0.002194 0.001524 0.003059 0.000194 
de 0.002280 -0.004953 0.004315 0.000480 -0.001831 -0.002083 -0.000748 -0.002935 -0.004370 -0.002837 0.004277 -0.001770 -0.002679 0.002317 -0.001704 0.004757 -0.001605 -0.004589 0.002716 -0.000074 -0.003489 0.000976 0.001442 -0.000481 0.001824 -0.003958 0.000881 0.001817 -0.003009 0.000142 -0.000061 -0.002399 -0.002833 -0.004694 0.000023 0.000153 0.000010 -0.003934 -0.004962 -0.004747 -0.004326 -0.000547 0.001391 0.001184 -0.003182 0.004998 -0.002011 -0.001274 -0.001404 0.004733 -0.003764 0.001161 -0.001335 0.003188 0.000041 0.004270 -0.002819 -0.002605 -0.004192 -0.003667 -0.003199 -0.003115 0.002444 -0.001867 0.002680 0.003690 0.001356 0.002951 0.002476 0.002341 -0.003551 -0.003433 -0.003657 -0.000132 0.004131 -0.002737 -0.003060 -0.004196 0.003306 -0.004179 -0.000579 0.002179 -0.004618 -0.004479 0.001443 0.003525 0.004264 0.002146 0.003162 -0.003128 -0.003640 0.003975 -0.002765 0.001753 0.000574 0.001790 -0.001182 0.000199 -0.001686 -0.001127 
